digraph Tree {
0 [label="X[1] <= 0.5000\ngini = 0.46986266987\nsamples = 668", shape="box"] ;
1 [label="X[0] <= 2.5000\ngini = 0.381328073636\nsamples = 234", shape="box"] ;
0 -> 1 ;
2 [label="X[2] <= 2.5000\ngini = 0.0779959019102\nsamples = 123", shape="box"] ;
1 -> 2 ;
3 [label="X[4] <= 1.5000\ngini = 0.5\nsamples = 2", shape="box"] ;
2 -> 3 ;
4 [label="gini = 0.0000\nsamples = 1\nvalue = [ 0.  1.]", shape="box"] ;
3 -> 4 ;
5 [label="gini = 0.0000\nsamples = 1\nvalue = [ 1.  0.]", shape="box"] ;
3 -> 5 ;
6 [label="X[2] <= 26.5000\ngini = 0.0639300594222\nsamples = 121", shape="box"] ;
2 -> 6 ;
7 [label="X[2] <= 24.5000\ngini = 0.132653061224\nsamples = 42", shape="box"] ;
6 -> 7 ;
8 [label="X[5] <= 13.3959\ngini = 0.0525931336742\nsamples = 37", shape="box"] ;
7 -> 8 ;
9 [label="X[2] <= 21.0000\ngini = 0.32\nsamples = 5", shape="box"] ;
8 -> 9 ;
10 [label="gini = 0.0000\nsamples = 3\nvalue = [ 0.  3.]", shape="box"] ;
9 -> 10 ;
11 [label="gini = 0.5000\nsamples = 2\nvalue = [ 1.  1.]", shape="box"] ;
9 -> 11 ;
12 [label="gini = 0.0000\nsamples = 32\nvalue = [  0.  32.]", shape="box"] ;
8 -> 12 ;
13 [label="X[3] <= 0.5000\ngini = 0.48\nsamples = 5", shape="box"] ;
7 -> 13 ;
14 [label="gini = 0.0000\nsamples = 2\nvalue = [ 0.  2.]", shape="box"] ;
13 -> 14 ;
15 [label="X[2] <= 25.5000\ngini = 0.444444444444\nsamples = 3", shape="box"] ;
13 -> 15 ;
16 [label="X[0] <= 1.5000\ngini = 0.5\nsamples = 2", shape="box"] ;
15 -> 16 ;
17 [label="gini = 0.0000\nsamples = 1\nvalue = [ 1.  0.]", shape="box"] ;
16 -> 17 ;
18 [label="gini = 0.0000\nsamples = 1\nvalue = [ 0.  1.]", shape="box"] ;
16 -> 18 ;
19 [label="gini = 0.0000\nsamples = 1\nvalue = [ 1.  0.]", shape="box"] ;
15 -> 19 ;
20 [label="X[2] <= 49.5000\ngini = 0.0249959942317\nsamples = 79", shape="box"] ;
6 -> 20 ;
21 [label="gini = 0.0000\nsamples = 68\nvalue = [  0.  68.]", shape="box"] ;
20 -> 21 ;
22 [label="X[2] <= 51.5000\ngini = 0.165289256198\nsamples = 11", shape="box"] ;
20 -> 22 ;
23 [label="X[6] <= 0.5000\ngini = 0.444444444444\nsamples = 3", shape="box"] ;
22 -> 23 ;
24 [label="X[4] <= 0.5000\ngini = 0.5\nsamples = 2", shape="box"] ;
23 -> 24 ;
25 [label="gini = 0.0000\nsamples = 1\nvalue = [ 1.  0.]", shape="box"] ;
24 -> 25 ;
26 [label="gini = 0.0000\nsamples = 1\nvalue = [ 0.  1.]", shape="box"] ;
24 -> 26 ;
27 [label="gini = 0.0000\nsamples = 1\nvalue = [ 0.  1.]", shape="box"] ;
23 -> 27 ;
28 [label="gini = 0.0000\nsamples = 8\nvalue = [ 0.  8.]", shape="box"] ;
22 -> 28 ;
29 [label="X[5] <= 20.8000\ngini = 0.499959418878\nsamples = 111", shape="box"] ;
1 -> 29 ;
30 [label="X[5] <= 15.3729\ngini = 0.480908970802\nsamples = 87", shape="box"] ;
29 -> 30 ;
31 [label="X[5] <= 8.0396\ngini = 0.498367346939\nsamples = 70", shape="box"] ;
30 -> 31 ;
32 [label="X[2] <= 27.5000\ngini = 0.444444444444\nsamples = 39", shape="box"] ;
31 -> 32 ;
33 [label="X[2] <= 14.5000\ngini = 0.382040816327\nsamples = 35", shape="box"] ;
32 -> 33 ;
34 [label="gini = 0.0000\nsamples = 1\nvalue = [ 1.  0.]", shape="box"] ;
33 -> 34 ;
35 [label="X[2] <= 17.5000\ngini = 0.359861591696\nsamples = 34", shape="box"] ;
33 -> 35 ;
36 [label="gini = 0.0000\nsamples = 5\nvalue = [ 0.  5.]", shape="box"] ;
35 -> 36 ;
37 [label="X[2] <= 25.5000\ngini = 0.399524375743\nsamples = 29", shape="box"] ;
35 -> 37 ;
38 [label="X[5] <= 7.9021\ngini = 0.426035502959\nsamples = 26", shape="box"] ;
37 -> 38 ;
39 [label="X[5] <= 7.7812\ngini = 0.375\nsamples = 24", shape="box"] ;
38 -> 39 ;
40 [label="X[5] <= 7.7625\ngini = 0.444444444444\nsamples = 18", shape="box"] ;
39 -> 40 ;
41 [label="X[5] <= 7.6396\ngini = 0.391111111111\nsamples = 15", shape="box"] ;
40 -> 41 ;
42 [label="X[2] <= 24.0000\ngini = 0.5\nsamples = 4", shape="box"] ;
41 -> 42 ;
43 [label="gini = 0.0000\nsamples = 2\nvalue = [ 0.  2.]", shape="box"] ;
42 -> 43 ;
44 [label="gini = 0.0000\nsamples = 2\nvalue = [ 2.  0.]", shape="box"] ;
42 -> 44 ;
45 [label="X[2] <= 21.5000\ngini = 0.297520661157\nsamples = 11", shape="box"] ;
41 -> 45 ;
46 [label="X[6] <= 0.5000\ngini = 0.5\nsamples = 2", shape="box"] ;
45 -> 46 ;
47 [label="gini = 0.0000\nsamples = 1\nvalue = [ 1.  0.]", shape="box"] ;
46 -> 47 ;
48 [label="gini = 0.0000\nsamples = 1\nvalue = [ 0.  1.]", shape="box"] ;
46 -> 48 ;
49 [label="X[2] <= 23.5000\ngini = 0.197530864198\nsamples = 9", shape="box"] ;
45 -> 49 ;
50 [label="gini = 0.0000\nsamples = 2\nvalue = [ 0.  2.]", shape="box"] ;
49 -> 50 ;
51 [label="X[5] <= 7.7438\ngini = 0.244897959184\nsamples = 7", shape="box"] ;
49 -> 51 ;
52 [label="gini = 0.0000\nsamples = 2\nvalue = [ 0.  2.]", shape="box"] ;
51 -> 52 ;
53 [label="gini = 0.3200\nsamples = 5\nvalue = [ 1.  4.]", shape="box"] ;
51 -> 53 ;
54 [label="X[2] <= 20.0000\ngini = 0.444444444444\nsamples = 3", shape="box"] ;
40 -> 54 ;
55 [label="gini = 0.0000\nsamples = 1\nvalue = [ 1.  0.]", shape="box"] ;
54 -> 55 ;
56 [label="X[2] <= 23.5000\ngini = 0.5\nsamples = 2", shape="box"] ;
54 -> 56 ;
57 [label="gini = 0.0000\nsamples = 1\nvalue = [ 0.  1.]", shape="box"] ;
56 -> 57 ;
58 [label="gini = 0.0000\nsamples = 1\nvalue = [ 1.  0.]", shape="box"] ;
56 -> 58 ;
59 [label="gini = 0.0000\nsamples = 6\nvalue = [ 0.  6.]", shape="box"] ;
39 -> 59 ;
60 [label="gini = 0.0000\nsamples = 2\nvalue = [ 2.  0.]", shape="box"] ;
38 -> 60 ;
61 [label="gini = 0.0000\nsamples = 3\nvalue = [ 0.  3.]", shape="box"] ;
37 -> 61 ;
62 [label="gini = 0.0000\nsamples = 4\nvalue = [ 4.  0.]", shape="box"] ;
32 -> 62 ;
63 [label="X[5] <= 9.8396\ngini = 0.457856399584\nsamples = 31", shape="box"] ;
31 -> 63 ;
64 [label="X[2] <= 51.5000\ngini = 0.152777777778\nsamples = 12", shape="box"] ;
63 -> 64 ;
65 [label="gini = 0.0000\nsamples = 11\nvalue = [ 11.   0.]", shape="box"] ;
64 -> 65 ;
66 [label="gini = 0.0000\nsamples = 1\nvalue = [ 0.  1.]", shape="box"] ;
64 -> 66 ;
67 [label="X[5] <= 13.9083\ngini = 0.498614958449\nsamples = 19", shape="box"] ;
63 -> 67 ;
68 [label="gini = 0.0000\nsamples = 8\nvalue = [ 0.  8.]", shape="box"] ;
67 -> 68 ;
69 [label="X[2] <= 28.5000\ngini = 0.297520661157\nsamples = 11", shape="box"] ;
67 -> 69 ;
70 [label="X[2] <= 16.0000\ngini = 0.197530864198\nsamples = 9", shape="box"] ;
69 -> 70 ;
71 [label="X[2] <= 14.7500\ngini = 0.444444444444\nsamples = 3", shape="box"] ;
70 -> 71 ;
72 [label="gini = 0.0000\nsamples = 2\nvalue = [ 2.  0.]", shape="box"] ;
71 -> 72 ;
73 [label="gini = 0.0000\nsamples = 1\nvalue = [ 0.  1.]", shape="box"] ;
71 -> 73 ;
74 [label="gini = 0.0000\nsamples = 6\nvalue = [ 6.  0.]", shape="box"] ;
70 -> 74 ;
75 [label="X[5] <= 14.8500\ngini = 0.5\nsamples = 2", shape="box"] ;
69 -> 75 ;
76 [label="gini = 0.0000\nsamples = 1\nvalue = [ 1.  0.]", shape="box"] ;
75 -> 76 ;
77 [label="gini = 0.0000\nsamples = 1\nvalue = [ 0.  1.]", shape="box"] ;
75 -> 77 ;
78 [label="X[2] <= 25.5000\ngini = 0.207612456747\nsamples = 17", shape="box"] ;
30 -> 78 ;
79 [label="gini = 0.0000\nsamples = 11\nvalue = [  0.  11.]", shape="box"] ;
78 -> 79 ;
80 [label="X[2] <= 32.0000\ngini = 0.444444444444\nsamples = 6", shape="box"] ;
78 -> 80 ;
81 [label="X[5] <= 19.2625\ngini = 0.444444444444\nsamples = 3", shape="box"] ;
80 -> 81 ;
82 [label="gini = 0.0000\nsamples = 2\nvalue = [ 2.  0.]", shape="box"] ;
81 -> 82 ;
83 [label="gini = 0.0000\nsamples = 1\nvalue = [ 0.  1.]", shape="box"] ;
81 -> 83 ;
84 [label="gini = 0.0000\nsamples = 3\nvalue = [ 0.  3.]", shape="box"] ;
80 -> 84 ;
85 [label="X[6] <= 0.5000\ngini = 0.277777777778\nsamples = 24", shape="box"] ;
29 -> 85 ;
86 [label="gini = 0.0000\nsamples = 2\nvalue = [ 0.  2.]", shape="box"] ;
85 -> 86 ;
87 [label="X[2] <= 5.5000\ngini = 0.165289256198\nsamples = 22", shape="box"] ;
85 -> 87 ;
88 [label="X[5] <= 31.3312\ngini = 0.5\nsamples = 2", shape="box"] ;
87 -> 88 ;
89 [label="gini = 0.0000\nsamples = 1\nvalue = [ 1.  0.]", shape="box"] ;
88 -> 89 ;
90 [label="gini = 0.0000\nsamples = 1\nvalue = [ 0.  1.]", shape="box"] ;
88 -> 90 ;
91 [label="X[4] <= 4.5000\ngini = 0.095\nsamples = 20", shape="box"] ;
87 -> 91 ;
92 [label="gini = 0.0000\nsamples = 17\nvalue = [ 17.   0.]", shape="box"] ;
91 -> 92 ;
93 [label="X[2] <= 38.5000\ngini = 0.444444444444\nsamples = 3", shape="box"] ;
91 -> 93 ;
94 [label="gini = 0.0000\nsamples = 1\nvalue = [ 0.  1.]", shape="box"] ;
93 -> 94 ;
95 [label="gini = 0.0000\nsamples = 2\nvalue = [ 2.  0.]", shape="box"] ;
93 -> 95 ;
96 [label="X[2] <= 6.5000\ngini = 0.294845930047\nsamples = 434", shape="box"] ;
0 -> 96 ;
97 [label="X[3] <= 2.5000\ngini = 0.401234567901\nsamples = 18", shape="box"] ;
96 -> 97 ;
98 [label="gini = 0.0000\nsamples = 12\nvalue = [  0.  12.]", shape="box"] ;
97 -> 98 ;
99 [label="X[2] <= 2.5000\ngini = 0.277777777778\nsamples = 6", shape="box"] ;
97 -> 99 ;
100 [label="gini = 0.0000\nsamples = 5\nvalue = [ 5.  0.]", shape="box"] ;
99 -> 100 ;
101 [label="gini = 0.0000\nsamples = 1\nvalue = [ 0.  1.]", shape="box"] ;
99 -> 101 ;
102 [label="X[0] <= 1.5000\ngini = 0.263671875\nsamples = 416", shape="box"] ;
96 -> 102 ;
103 [label="X[2] <= 37.5000\ngini = 0.447089563072\nsamples = 83", shape="box"] ;
102 -> 103 ;
104 [label="X[2] <= 33.5000\ngini = 0.488165680473\nsamples = 26", shape="box"] ;
103 -> 104 ;
105 [label="X[5] <= 77.0083\ngini = 0.484429065744\nsamples = 17", shape="box"] ;
104 -> 105 ;
106 [label="X[2] <= 28.5000\ngini = 0.495867768595\nsamples = 11", shape="box"] ;
105 -> 106 ;
107 [label="gini = 0.0000\nsamples = 4\nvalue = [ 0.  4.]", shape="box"] ;
106 -> 107 ;
108 [label="X[5] <= 30.2500\ngini = 0.408163265306\nsamples = 7", shape="box"] ;
106 -> 108 ;
109 [label="gini = 0.0000\nsamples = 3\nvalue = [ 3.  0.]", shape="box"] ;
108 -> 109 ;
110 [label="X[5] <= 40.4979\ngini = 0.5\nsamples = 4", shape="box"] ;
108 -> 110 ;
111 [label="gini = 0.0000\nsamples = 1\nvalue = [ 0.  1.]", shape="box"] ;
110 -> 111 ;
112 [label="X[5] <= 53.7479\ngini = 0.444444444444\nsamples = 3", shape="box"] ;
110 -> 112 ;
113 [label="gini = 0.0000\nsamples = 1\nvalue = [ 1.  0.]", shape="box"] ;
112 -> 113 ;
114 [label="X[2] <= 30.0000\ngini = 0.5\nsamples = 2", shape="box"] ;
112 -> 114 ;
115 [label="gini = 0.0000\nsamples = 1\nvalue = [ 1.  0.]", shape="box"] ;
114 -> 115 ;
116 [label="gini = 0.0000\nsamples = 1\nvalue = [ 0.  1.]", shape="box"] ;
114 -> 116 ;
117 [label="X[3] <= 0.5000\ngini = 0.277777777778\nsamples = 6", shape="box"] ;
105 -> 117 ;
118 [label="gini = 0.0000\nsamples = 4\nvalue = [ 4.  0.]", shape="box"] ;
117 -> 118 ;
119 [label="X[5] <= 86.6250\ngini = 0.5\nsamples = 2", shape="box"] ;
117 -> 119 ;
120 [label="gini = 0.0000\nsamples = 1\nvalue = [ 1.  0.]", shape="box"] ;
119 -> 120 ;
121 [label="gini = 0.0000\nsamples = 1\nvalue = [ 0.  1.]", shape="box"] ;
119 -> 121 ;
122 [label="X[2] <= 36.5000\ngini = 0.197530864198\nsamples = 9", shape="box"] ;
104 -> 122 ;
123 [label="gini = 0.0000\nsamples = 7\nvalue = [ 0.  7.]", shape="box"] ;
122 -> 123 ;
124 [label="X[5] <= 41.1271\ngini = 0.5\nsamples = 2", shape="box"] ;
122 -> 124 ;
125 [label="gini = 0.0000\nsamples = 1\nvalue = [ 1.  0.]", shape="box"] ;
124 -> 125 ;
126 [label="gini = 0.0000\nsamples = 1\nvalue = [ 0.  1.]", shape="box"] ;
124 -> 126 ;
127 [label="X[2] <= 57.0000\ngini = 0.352108341028\nsamples = 57", shape="box"] ;
103 -> 127 ;
128 [label="X[2] <= 47.5000\ngini = 0.405482041588\nsamples = 46", shape="box"] ;
127 -> 128 ;
129 [label="X[2] <= 45.2500\ngini = 0.334251606979\nsamples = 33", shape="box"] ;
128 -> 129 ;
130 [label="X[5] <= 26.2375\ngini = 0.39349112426\nsamples = 26", shape="box"] ;
129 -> 130 ;
131 [label="gini = 0.0000\nsamples = 4\nvalue = [ 4.  0.]", shape="box"] ;
130 -> 131 ;
132 [label="X[5] <= 37.5500\ngini = 0.433884297521\nsamples = 22", shape="box"] ;
130 -> 132 ;
133 [label="X[6] <= 0.5000\ngini = 0.495867768595\nsamples = 11", shape="box"] ;
132 -> 133 ;
134 [label="X[5] <= 30.8479\ngini = 0.375\nsamples = 4", shape="box"] ;
133 -> 134 ;
135 [label="gini = 0.0000\nsamples = 3\nvalue = [ 3.  0.]", shape="box"] ;
134 -> 135 ;
136 [label="gini = 0.0000\nsamples = 1\nvalue = [ 0.  1.]", shape="box"] ;
134 -> 136 ;
137 [label="X[2] <= 41.5000\ngini = 0.489795918367\nsamples = 7", shape="box"] ;
133 -> 137 ;
138 [label="X[5] <= 28.2750\ngini = 0.375\nsamples = 4", shape="box"] ;
137 -> 138 ;
139 [label="gini = 0.5000\nsamples = 2\nvalue = [ 1.  1.]", shape="box"] ;
138 -> 139 ;
140 [label="gini = 0.0000\nsamples = 2\nvalue = [ 0.  2.]", shape="box"] ;
138 -> 140 ;
141 [label="X[5] <= 31.0250\ngini = 0.444444444444\nsamples = 3", shape="box"] ;
137 -> 141 ;
142 [label="gini = 0.5000\nsamples = 2\nvalue = [ 1.  1.]", shape="box"] ;
141 -> 142 ;
143 [label="gini = 0.0000\nsamples = 1\nvalue = [ 1.  0.]", shape="box"] ;
141 -> 143 ;
144 [label="X[3] <= 0.5000\ngini = 0.297520661157\nsamples = 11", shape="box"] ;
132 -> 144 ;
145 [label="gini = 0.0000\nsamples = 6\nvalue = [ 6.  0.]", shape="box"] ;
144 -> 145 ;
146 [label="X[2] <= 43.0000\ngini = 0.48\nsamples = 5", shape="box"] ;
144 -> 146 ;
147 [label="X[5] <= 52.2771\ngini = 0.444444444444\nsamples = 3", shape="box"] ;
146 -> 147 ;
148 [label="gini = 0.0000\nsamples = 1\nvalue = [ 1.  0.]", shape="box"] ;
147 -> 148 ;
149 [label="gini = 0.0000\nsamples = 2\nvalue = [ 0.  2.]", shape="box"] ;
147 -> 149 ;
150 [label="gini = 0.0000\nsamples = 2\nvalue = [ 2.  0.]", shape="box"] ;
146 -> 150 ;
151 [label="gini = 0.0000\nsamples = 7\nvalue = [ 7.  0.]", shape="box"] ;
129 -> 151 ;
152 [label="X[4] <= 0.5000\ngini = 0.497041420118\nsamples = 13", shape="box"] ;
128 -> 152 ;
153 [label="X[2] <= 53.0000\ngini = 0.48\nsamples = 10", shape="box"] ;
152 -> 153 ;
154 [label="X[5] <= 97.7646\ngini = 0.277777777778\nsamples = 6", shape="box"] ;
153 -> 154 ;
155 [label="gini = 0.0000\nsamples = 4\nvalue = [ 0.  4.]", shape="box"] ;
154 -> 155 ;
156 [label="X[5] <= 120.0375\ngini = 0.5\nsamples = 2", shape="box"] ;
154 -> 156 ;
157 [label="gini = 0.0000\nsamples = 1\nvalue = [ 1.  0.]", shape="box"] ;
156 -> 157 ;
158 [label="gini = 0.0000\nsamples = 1\nvalue = [ 0.  1.]", shape="box"] ;
156 -> 158 ;
159 [label="X[6] <= 0.5000\ngini = 0.375\nsamples = 4", shape="box"] ;
153 -> 159 ;
160 [label="X[5] <= 33.0979\ngini = 0.5\nsamples = 2", shape="box"] ;
159 -> 160 ;
161 [label="gini = 0.0000\nsamples = 1\nvalue = [ 1.  0.]", shape="box"] ;
160 -> 161 ;
162 [label="gini = 0.0000\nsamples = 1\nvalue = [ 0.  1.]", shape="box"] ;
160 -> 162 ;
163 [label="gini = 0.0000\nsamples = 2\nvalue = [ 2.  0.]", shape="box"] ;
159 -> 163 ;
164 [label="gini = 0.0000\nsamples = 3\nvalue = [ 3.  0.]", shape="box"] ;
152 -> 164 ;
165 [label="gini = 0.0000\nsamples = 11\nvalue = [ 11.   0.]", shape="box"] ;
127 -> 165 ;
166 [label="X[7] <= 0.5000\ngini = 0.197530864198\nsamples = 333", shape="box"] ;
102 -> 166 ;
167 [label="X[2] <= 9.5000\ngini = 0.172335600907\nsamples = 294", shape="box"] ;
166 -> 167 ;
168 [label="X[3] <= 2.5000\ngini = 0.408163265306\nsamples = 7", shape="box"] ;
167 -> 168 ;
169 [label="gini = 0.0000\nsamples = 2\nvalue = [ 0.  2.]", shape="box"] ;
168 -> 169 ;
170 [label="gini = 0.0000\nsamples = 5\nvalue = [ 5.  0.]", shape="box"] ;
168 -> 170 ;
171 [label="X[2] <= 26.5000\ngini = 0.164770726851\nsamples = 287", shape="box"] ;
167 -> 171 ;
172 [label="X[5] <= 3.3750\ngini = 0.110726643599\nsamples = 153", shape="box"] ;
171 -> 172 ;
173 [label="X[2] <= 22.0000\ngini = 0.5\nsamples = 2", shape="box"] ;
172 -> 173 ;
174 [label="gini = 0.0000\nsamples = 1\nvalue = [ 1.  0.]", shape="box"] ;
173 -> 174 ;
175 [label="gini = 0.0000\nsamples = 1\nvalue = [ 0.  1.]", shape="box"] ;
173 -> 175 ;
176 [label="X[5] <= 7.7979\ngini = 0.100346476032\nsamples = 151", shape="box"] ;
172 -> 176 ;
177 [label="X[5] <= 7.7625\ngini = 0.18836565097\nsamples = 38", shape="box"] ;
176 -> 177 ;
178 [label="X[5] <= 7.7459\ngini = 0.0644444444444\nsamples = 30", shape="box"] ;
177 -> 178 ;
179 [label="gini = 0.0000\nsamples = 21\nvalue = [ 21.   0.]", shape="box"] ;
178 -> 179 ;
180 [label="X[3] <= 0.5000\ngini = 0.197530864198\nsamples = 9", shape="box"] ;
178 -> 180 ;
181 [label="X[6] <= 0.5000\ngini = 0.21875\nsamples = 8", shape="box"] ;
180 -> 181 ;
182 [label="gini = 0.2449\nsamples = 7\nvalue = [ 6.  1.]", shape="box"] ;
181 -> 182 ;
183 [label="gini = 0.0000\nsamples = 1\nvalue = [ 1.  0.]", shape="box"] ;
181 -> 183 ;
184 [label="gini = 0.0000\nsamples = 1\nvalue = [ 1.  0.]", shape="box"] ;
180 -> 184 ;
185 [label="X[2] <= 19.5000\ngini = 0.46875\nsamples = 8", shape="box"] ;
177 -> 185 ;
186 [label="gini = 0.0000\nsamples = 3\nvalue = [ 3.  0.]", shape="box"] ;
185 -> 186 ;
187 [label="X[2] <= 22.5000\ngini = 0.48\nsamples = 5", shape="box"] ;
185 -> 187 ;
188 [label="gini = 0.0000\nsamples = 1\nvalue = [ 0.  1.]", shape="box"] ;
187 -> 188 ;
189 [label="X[2] <= 24.5000\ngini = 0.5\nsamples = 4", shape="box"] ;
187 -> 189 ;
190 [label="gini = 0.0000\nsamples = 1\nvalue = [ 1.  0.]", shape="box"] ;
189 -> 190 ;
191 [label="X[3] <= 0.5000\ngini = 0.444444444444\nsamples = 3", shape="box"] ;
189 -> 191 ;
192 [label="gini = 0.0000\nsamples = 1\nvalue = [ 0.  1.]", shape="box"] ;
191 -> 192 ;
193 [label="gini = 0.5000\nsamples = 2\nvalue = [ 1.  1.]", shape="box"] ;
191 -> 193 ;
194 [label="X[6] <= 0.5000\ngini = 0.0682903907902\nsamples = 113", shape="box"] ;
176 -> 194 ;
195 [label="X[3] <= 1.5000\ngini = 0.244897959184\nsamples = 7", shape="box"] ;
194 -> 195 ;
196 [label="gini = 0.0000\nsamples = 6\nvalue = [ 6.  0.]", shape="box"] ;
195 -> 196 ;
197 [label="gini = 0.0000\nsamples = 1\nvalue = [ 0.  1.]", shape="box"] ;
195 -> 197 ;
198 [label="X[5] <= 11.0000\ngini = 0.0550017799929\nsamples = 106", shape="box"] ;
194 -> 198 ;
199 [label="X[3] <= 0.5000\ngini = 0.08935546875\nsamples = 64", shape="box"] ;
198 -> 199 ;
200 [label="X[0] <= 2.5000\ngini = 0.0634238108035\nsamples = 61", shape="box"] ;
199 -> 200 ;
201 [label="X[2] <= 21.0000\ngini = 0.32\nsamples = 5", shape="box"] ;
200 -> 201 ;
202 [label="gini = 0.5000\nsamples = 2\nvalue = [ 1.  1.]", shape="box"] ;
201 -> 202 ;
203 [label="gini = 0.0000\nsamples = 3\nvalue = [ 3.  0.]", shape="box"] ;
201 -> 203 ;
204 [label="X[5] <= 8.0813\ngini = 0.0350765306122\nsamples = 56", shape="box"] ;
200 -> 204 ;
205 [label="gini = 0.0000\nsamples = 40\nvalue = [ 40.   0.]", shape="box"] ;
204 -> 205 ;
206 [label="X[5] <= 8.1354\ngini = 0.1171875\nsamples = 16", shape="box"] ;
204 -> 206 ;
207 [label="gini = 0.0000\nsamples = 1\nvalue = [ 0.  1.]", shape="box"] ;
206 -> 207 ;
208 [label="gini = 0.0000\nsamples = 15\nvalue = [ 15.   0.]", shape="box"] ;
206 -> 208 ;
209 [label="X[3] <= 1.5000\ngini = 0.444444444444\nsamples = 3", shape="box"] ;
199 -> 209 ;
210 [label="X[2] <= 19.0000\ngini = 0.5\nsamples = 2", shape="box"] ;
209 -> 210 ;
211 [label="gini = 0.0000\nsamples = 1\nvalue = [ 1.  0.]", shape="box"] ;
210 -> 211 ;
212 [label="gini = 0.0000\nsamples = 1\nvalue = [ 0.  1.]", shape="box"] ;
210 -> 212 ;
213 [label="gini = 0.0000\nsamples = 1\nvalue = [ 1.  0.]", shape="box"] ;
209 -> 213 ;
214 [label="gini = 0.0000\nsamples = 42\nvalue = [ 42.   0.]", shape="box"] ;
198 -> 214 ;
215 [label="X[2] <= 32.5000\ngini = 0.221541546001\nsamples = 134", shape="box"] ;
171 -> 215 ;
216 [label="X[2] <= 30.7500\ngini = 0.341157024793\nsamples = 55", shape="box"] ;
215 -> 216 ;
217 [label="X[2] <= 27.5000\ngini = 0.233747260774\nsamples = 37", shape="box"] ;
216 -> 217 ;
218 [label="X[5] <= 7.8458\ngini = 0.444444444444\nsamples = 6", shape="box"] ;
217 -> 218 ;
219 [label="gini = 0.0000\nsamples = 2\nvalue = [ 0.  2.]", shape="box"] ;
218 -> 219 ;
220 [label="gini = 0.0000\nsamples = 4\nvalue = [ 4.  0.]", shape="box"] ;
218 -> 220 ;
221 [label="X[5] <= 9.4916\ngini = 0.174817898023\nsamples = 31", shape="box"] ;
217 -> 221 ;
222 [label="gini = 0.0000\nsamples = 17\nvalue = [ 17.   0.]", shape="box"] ;
221 -> 222 ;
223 [label="X[2] <= 28.5000\ngini = 0.336734693878\nsamples = 14", shape="box"] ;
221 -> 223 ;
224 [label="gini = 0.0000\nsamples = 6\nvalue = [ 6.  0.]", shape="box"] ;
223 -> 224 ;
225 [label="X[5] <= 10.0000\ngini = 0.46875\nsamples = 8", shape="box"] ;
223 -> 225 ;
226 [label="gini = 0.0000\nsamples = 2\nvalue = [ 0.  2.]", shape="box"] ;
225 -> 226 ;
227 [label="X[2] <= 29.5000\ngini = 0.277777777778\nsamples = 6", shape="box"] ;
225 -> 227 ;
228 [label="gini = 0.0000\nsamples = 2\nvalue = [ 2.  0.]", shape="box"] ;
227 -> 228 ;
229 [label="X[5] <= 11.7500\ngini = 0.375\nsamples = 4", shape="box"] ;
227 -> 229 ;
230 [label="gini = 0.0000\nsamples = 1\nvalue = [ 1.  0.]", shape="box"] ;
229 -> 230 ;
231 [label="X[0] <= 2.5000\ngini = 0.444444444444\nsamples = 3", shape="box"] ;
229 -> 231 ;
232 [label="gini = 0.5000\nsamples = 2\nvalue = [ 1.  1.]", shape="box"] ;
231 -> 232 ;
233 [label="gini = 0.0000\nsamples = 1\nvalue = [ 1.  0.]", shape="box"] ;
231 -> 233 ;
234 [label="X[5] <= 7.8146\ngini = 0.475308641975\nsamples = 18", shape="box"] ;
216 -> 234 ;
235 [label="gini = 0.0000\nsamples = 3\nvalue = [ 3.  0.]", shape="box"] ;
234 -> 235 ;
236 [label="X[5] <= 7.8750\ngini = 0.497777777778\nsamples = 15", shape="box"] ;
234 -> 236 ;
237 [label="gini = 0.0000\nsamples = 1\nvalue = [ 0.  1.]", shape="box"] ;
236 -> 237 ;
238 [label="X[4] <= 0.5000\ngini = 0.489795918367\nsamples = 14", shape="box"] ;
236 -> 238 ;
239 [label="X[5] <= 7.9104\ngini = 0.497041420118\nsamples = 13", shape="box"] ;
238 -> 239 ;
240 [label="gini = 0.0000\nsamples = 1\nvalue = [ 1.  0.]", shape="box"] ;
239 -> 240 ;
241 [label="X[3] <= 1.5000\ngini = 0.5\nsamples = 12", shape="box"] ;
239 -> 241 ;
242 [label="X[5] <= 20.9250\ngini = 0.495867768595\nsamples = 11", shape="box"] ;
241 -> 242 ;
243 [label="X[5] <= 9.2750\ngini = 0.493827160494\nsamples = 9", shape="box"] ;
242 -> 243 ;
244 [label="X[2] <= 31.5000\ngini = 0.48\nsamples = 5", shape="box"] ;
243 -> 244 ;
245 [label="gini = 0.0000\nsamples = 1\nvalue = [ 0.  1.]", shape="box"] ;
244 -> 245 ;
246 [label="X[5] <= 7.9875\ngini = 0.5\nsamples = 4", shape="box"] ;
244 -> 246 ;
247 [label="gini = 0.4444\nsamples = 3\nvalue = [ 2.  1.]", shape="box"] ;
246 -> 247 ;
248 [label="gini = 0.0000\nsamples = 1\nvalue = [ 0.  1.]", shape="box"] ;
246 -> 248 ;
249 [label="X[5] <= 11.7500\ngini = 0.375\nsamples = 4", shape="box"] ;
243 -> 249 ;
250 [label="gini = 0.0000\nsamples = 2\nvalue = [ 2.  0.]", shape="box"] ;
249 -> 250 ;
251 [label="X[0] <= 2.5000\ngini = 0.5\nsamples = 2", shape="box"] ;
249 -> 251 ;
252 [label="gini = 0.0000\nsamples = 1\nvalue = [ 0.  1.]", shape="box"] ;
251 -> 252 ;
253 [label="gini = 0.0000\nsamples = 1\nvalue = [ 1.  0.]", shape="box"] ;
251 -> 253 ;
254 [label="gini = 0.0000\nsamples = 2\nvalue = [ 0.  2.]", shape="box"] ;
242 -> 254 ;
255 [label="gini = 0.0000\nsamples = 1\nvalue = [ 1.  0.]", shape="box"] ;
241 -> 255 ;
256 [label="gini = 0.0000\nsamples = 1\nvalue = [ 1.  0.]", shape="box"] ;
238 -> 256 ;
257 [label="X[5] <= 13.2500\ngini = 0.118570741868\nsamples = 79", shape="box"] ;
215 -> 257 ;
258 [label="X[5] <= 7.9104\ngini = 0.170879316483\nsamples = 53", shape="box"] ;
257 -> 258 ;
259 [label="gini = 0.0000\nsamples = 23\nvalue = [ 23.   0.]", shape="box"] ;
258 -> 259 ;
260 [label="X[2] <= 59.5000\ngini = 0.277777777778\nsamples = 30", shape="box"] ;
258 -> 260 ;
261 [label="X[5] <= 7.9875\ngini = 0.244897959184\nsamples = 28", shape="box"] ;
260 -> 261 ;
262 [label="X[3] <= 1.0000\ngini = 0.5\nsamples = 2", shape="box"] ;
261 -> 262 ;
263 [label="gini = 0.0000\nsamples = 1\nvalue = [ 0.  1.]", shape="box"] ;
262 -> 263 ;
264 [label="gini = 0.0000\nsamples = 1\nvalue = [ 1.  0.]", shape="box"] ;
262 -> 264 ;
265 [label="X[2] <= 46.0000\ngini = 0.204142011834\nsamples = 26", shape="box"] ;
261 -> 265 ;
266 [label="X[2] <= 44.5000\ngini = 0.277777777778\nsamples = 18", shape="box"] ;
265 -> 266 ;
267 [label="X[5] <= 12.6375\ngini = 0.207612456747\nsamples = 17", shape="box"] ;
266 -> 267 ;
268 [label="gini = 0.0000\nsamples = 10\nvalue = [ 10.   0.]", shape="box"] ;
267 -> 268 ;
269 [label="X[2] <= 35.0000\ngini = 0.408163265306\nsamples = 7", shape="box"] ;
267 -> 269 ;
270 [label="gini = 0.5000\nsamples = 2\nvalue = [ 1.  1.]", shape="box"] ;
269 -> 270 ;
271 [label="X[2] <= 40.5000\ngini = 0.32\nsamples = 5", shape="box"] ;
269 -> 271 ;
272 [label="gini = 0.0000\nsamples = 3\nvalue = [ 3.  0.]", shape="box"] ;
271 -> 272 ;
273 [label="gini = 0.5000\nsamples = 2\nvalue = [ 1.  1.]", shape="box"] ;
271 -> 273 ;
274 [label="gini = 0.0000\nsamples = 1\nvalue = [ 0.  1.]", shape="box"] ;
266 -> 274 ;
275 [label="gini = 0.0000\nsamples = 8\nvalue = [ 8.  0.]", shape="box"] ;
265 -> 275 ;
276 [label="X[2] <= 66.0000\ngini = 0.5\nsamples = 2", shape="box"] ;
260 -> 276 ;
277 [label="gini = 0.0000\nsamples = 1\nvalue = [ 0.  1.]", shape="box"] ;
276 -> 277 ;
278 [label="gini = 0.0000\nsamples = 1\nvalue = [ 1.  0.]", shape="box"] ;
276 -> 278 ;
279 [label="gini = 0.0000\nsamples = 26\nvalue = [ 26.   0.]", shape="box"] ;
257 -> 279 ;
280 [label="X[2] <= 22.5000\ngini = 0.355029585799\nsamples = 39", shape="box"] ;
166 -> 280 ;
281 [label="X[2] <= 18.5000\ngini = 0.5\nsamples = 8", shape="box"] ;
280 -> 281 ;
282 [label="X[5] <= 9.2354\ngini = 0.375\nsamples = 4", shape="box"] ;
281 -> 282 ;
283 [label="gini = 0.0000\nsamples = 2\nvalue = [ 2.  0.]", shape="box"] ;
282 -> 283 ;
284 [label="X[5] <= 15.0146\ngini = 0.5\nsamples = 2", shape="box"] ;
282 -> 284 ;
285 [label="gini = 0.0000\nsamples = 1\nvalue = [ 0.  1.]", shape="box"] ;
284 -> 285 ;
286 [label="gini = 0.0000\nsamples = 1\nvalue = [ 1.  0.]", shape="box"] ;
284 -> 286 ;
287 [label="X[2] <= 21.0000\ngini = 0.375\nsamples = 4", shape="box"] ;
281 -> 287 ;
288 [label="gini = 0.0000\nsamples = 2\nvalue = [ 0.  2.]", shape="box"] ;
287 -> 288 ;
289 [label="X[5] <= 7.2271\ngini = 0.5\nsamples = 2", shape="box"] ;
287 -> 289 ;
290 [label="gini = 0.0000\nsamples = 1\nvalue = [ 0.  1.]", shape="box"] ;
289 -> 290 ;
291 [label="gini = 0.0000\nsamples = 1\nvalue = [ 1.  0.]", shape="box"] ;
289 -> 291 ;
292 [label="X[5] <= 11.2875\ngini = 0.270551508845\nsamples = 31", shape="box"] ;
280 -> 292 ;
293 [label="X[5] <= 7.2271\ngini = 0.0997229916898\nsamples = 19", shape="box"] ;
292 -> 293 ;
294 [label="gini = 0.0000\nsamples = 7\nvalue = [ 7.  0.]", shape="box"] ;
293 -> 294 ;
295 [label="X[5] <= 7.5625\ngini = 0.152777777778\nsamples = 12", shape="box"] ;
293 -> 295 ;
296 [label="X[2] <= 26.7500\ngini = 0.244897959184\nsamples = 7", shape="box"] ;
295 -> 296 ;
297 [label="X[2] <= 24.2500\ngini = 0.32\nsamples = 5", shape="box"] ;
296 -> 297 ;
298 [label="gini = 0.0000\nsamples = 1\nvalue = [ 1.  0.]", shape="box"] ;
297 -> 298 ;
299 [label="gini = 0.3750\nsamples = 4\nvalue = [ 3.  1.]", shape="box"] ;
297 -> 299 ;
300 [label="gini = 0.0000\nsamples = 2\nvalue = [ 2.  0.]", shape="box"] ;
296 -> 300 ;
301 [label="gini = 0.0000\nsamples = 5\nvalue = [ 5.  0.]", shape="box"] ;
295 -> 301 ;
302 [label="X[5] <= 20.2333\ngini = 0.444444444444\nsamples = 12", shape="box"] ;
292 -> 302 ;
303 [label="X[5] <= 15.1479\ngini = 0.489795918367\nsamples = 7", shape="box"] ;
302 -> 303 ;
304 [label="X[5] <= 14.1583\ngini = 0.375\nsamples = 4", shape="box"] ;
303 -> 304 ;
305 [label="gini = 0.0000\nsamples = 1\nvalue = [ 0.  1.]", shape="box"] ;
304 -> 305 ;
306 [label="gini = 0.0000\nsamples = 3\nvalue = [ 3.  0.]", shape="box"] ;
304 -> 306 ;
307 [label="gini = 0.0000\nsamples = 3\nvalue = [ 0.  3.]", shape="box"] ;
303 -> 307 ;
308 [label="gini = 0.0000\nsamples = 5\nvalue = [ 5.  0.]", shape="box"] ;
302 -> 308 ;
}